#include "parameter.h"

// const float dense1_bias[16] = {-1.7607421875,-0.66748046875,0.0994873046875,-1.48828125,-1.3193359375,-0.58349609375,-1.203125,1.5107421875,-0.438720703125,-0.9404296875,-1.3837890625,-0.7626953125,-1.9619140625,-1.12890625,-1.220703125,-1.2568359375};

// const float dense1_weight[62][16] = {0.005519866943359375,0.0094146728515625,0.003650665283203125,-0.0003573894500732422,0.005039215087890625,0.005908966064453125,-0.005859375,-0.0012979507446289062,0.01305389404296875,0.00640106201171875,-0.0010328292846679688,0.0009131431579589844,0.00891876220703125,0.0021457672119140625,0.0017681121826171875,0.01470947265625,-0.0154571533203125,-0.000736236572265625,-0.0023555755615234375,-0.00836181640625,-0.0294647216796875,-0.007083892822265625,0.01313018798828125,-0.00855255126953125,-0.00970458984375,-0.0015611648559570312,-0.006893157958984375,0.00844573974609375,-0.009185791015625,-0.00567626953125,-0.002567291259765625,-0.007160186767578125,0.005329132080078125,0.0133056640625,0.0018749237060546875,0.007328033447265625,0.0056304931640625,0.0058441162109375,-0.0029010772705078125,-0.0026187896728515625,0.0159912109375,0.007587432861328125,-0.005092620849609375,-0.0006670951843261719,0.005096435546875,-0.002208709716796875,0.00884246826171875,0.0171661376953125,-0.0219573974609375,-0.0010986328125,-0.004940032958984375,-0.00943756103515625,-0.01232147216796875,0.005527496337890625,0.009063720703125,-0.057647705078125,-0.0197601318359375,-0.00830841064453125,-0.01004791259765625,-0.0014944076538085938,-0.0063018798828125,-0.0025386810302734375,-0.0010690689086914062,-0.016204833984375,0.049072265625,-0.0021419525146484375,-0.01331329345703125,0.0256500244140625,0.0037384033203125,-0.0192413330078125,0.13330078125,-0.0496826171875,-0.04071044921875,-0.001415252685546875,-0.0199737548828125,-0.0184478759765625,0.00647735595703125,-0.0157928466796875,-0.034820556640625,-9.113550186157227e-05,0.0298309326171875,0.007038116455078125,-0.0193939208984375,0.03240966796875,0.037689208984375,-0.0245513916015625,0.11981201171875,0.06787109375,-0.05377197265625,0.00766754150390625,-0.01371002197265625,-0.01190948486328125,0.019927978515625,0.002288818359375,-0.0046539306640625,0.03167724609375,0.0011272430419921875,0.00017333030700683594,-0.00058746337890625,-0.00209808349609375,0.0002875328063964844,-0.0008883476257324219,-0.000751495361328125,-0.0017976760864257812,-0.0022411346435546875,0.0033397674560546875,-0.0019311904907226562,0.0130462646484375,0.0018205642700195312,-0.0023136138916015625,-0.0012054443359375,0.004428863525390625,0.0099945068359375,0.00787353515625,0.001560211181640625,0.0128326416015625,0.01102447509765625,0.01511383056640625,-0.0016326904296875,0.003383636474609375,0.01702880859375,0.0022411346435546875,0.00264739990234375,0.00206756591796875,0.00344085693359375,-0.0030765533447265625,-0.005451202392578125,0.00928497314453125,-0.099365234375,0.00875091552734375,-0.01021575927734375,-0.0159759521484375,-0.0260772705078125,-0.0321044921875,-0.1605224609375,0.057403564453125,-0.033233642578125,0.01171875,0.03173828125,0.0257568359375,-0.0021038055419921875,0.01192474365234375,0.040130615234375,-0.0093536376953125,0.11065673828125,-0.00687408447265625,0.022491455078125,0.0228729248046875,0.036376953125,0.054473876953125,0.1229248046875,0.06622314453125,0.0682373046875,0.006557464599609375,-0.01436614990234375,-0.0328369140625,0.00937652587890625,0.0012159347534179688,0.00518798828125,0.0200042724609375,0.0012416839599609375,-0.00033473968505859375,-0.0011606216430664062,-0.0020904541015625,0.00024437904357910156,-0.0017881393432617188,-0.0002503395080566406,-0.0018281936645507812,-0.00252532958984375,-0.006519317626953125,0.01100921630859375,-0.0008077621459960938,0.0033588409423828125,0.0002856254577636719,-0.0007448196411132812,0.0039520263671875,0.001598358154296875,-5.537271499633789e-05,-0.001758575439453125,-0.0010223388671875,-0.004978179931640625,0.00022780895233154297,-0.0030918121337890625,0.0014286041259765625,0.001575469970703125,0.005771636962890625,-0.0002942085266113281,-0.001983642578125,0.004302978515625,-0.004863739013671875,0.006938934326171875,0.007610321044921875,0.028594970703125,-0.01422119140625,0.01000213623046875,-0.0006237030029296875,-0.00272369384765625,0.0117340087890625,-0.0018024444580078125,-0.0072174072265625,0.006778717041015625,-0.00772857666015625,0.0012655258178710938,0.0021820068359375,-0.0034618377685546875,0.0027713775634765625,2.771615982055664e-05,-0.0092620849609375,0.08233642578125,-0.041290283203125,0.030792236328125,-0.1129150390625,-0.133544921875,0.09942626953125,0.12213134765625,-0.52978515625,0.11346435546875,-0.0977783203125,-0.055419921875,-0.0274200439453125,-0.04193115234375,-0.07354736328125,-0.119384765625,-0.1396484375,0.0196075439453125,-0.00928497314453125,0.0024967193603515625,0.0014095306396484375,0.0007724761962890625,0.0159149169921875,-0.0084075927734375,0.0005502700805664062,0.0192718505859375,-0.0042266845703125,0.0005249977111816406,0.00131988525390625,-0.0002846717834472656,0.004291534423828125,0.0025653839111328125,-0.007678985595703125,0.09100341796875,-0.0384521484375,0.026763916015625,-0.097412109375,-0.1246337890625,0.0914306640625,0.10638427734375,-0.5234375,0.1041259765625,-0.0958251953125,-0.04608154296875,-0.026153564453125,-0.0428466796875,-0.06353759765625,-0.1285400390625,-0.132080078125,0.056427001953125,9.298324584960938e-06,-0.0093231201171875,0.0302734375,0.026641845703125,-0.0172271728515625,0.1226806640625,0.001220703125,-0.0328369140625,-0.0041656494140625,-0.02154541015625,-0.0169525146484375,0.0136566162109375,-0.00891876220703125,-0.0293426513671875,0.005054473876953125,0.0379638671875,-0.0005564689636230469,-0.02197265625,0.040802001953125,0.0299835205078125,-0.0341796875,0.11590576171875,0.07086181640625,-0.06500244140625,0.01296234130859375,-0.015594482421875,-0.0022563934326171875,0.01629638671875,-0.00537109375,-0.0294189453125,0.023101806640625,0.0008969306945800781,-0.00040268898010253906,-0.0011005401611328125,0.0132293701171875,-0.001430511474609375,-0.0005316734313964844,0.00045680999755859375,-0.0011320114135742188,-0.00174713134765625,-0.001407623291015625,-0.0006203651428222656,-0.0003147125244140625,0.00679779052734375,0.016357421875,-0.0008683204650878906,-0.0021343231201171875,0.005313873291015625,0.00148773193359375,0.0018558502197265625,-0.0009975433349609375,0.0038299560546875,-0.004543304443359375,0.01207733154296875,0.0038604736328125,-0.014434814453125,0.0012998580932617188,0.00025010108947753906,-4.2438507080078125e-05,-0.0021457672119140625,-0.003246307373046875,0.0012311935424804688,0.0038967132568359375,-0.08905029296875,0.00763702392578125,-0.005756378173828125,-0.019744873046875,-0.001308441162109375,-0.0152130126953125,-0.163818359375,0.0265960693359375,-0.004268646240234375,0.003627777099609375,0.0228729248046875,0.0256500244140625,-0.004055023193359375,0.01120758056640625,0.016326904296875,-0.0010023117065429688,0.08819580078125,-0.005695343017578125,0.011474609375,-0.0062713623046875,-0.038116455078125,0.04443359375,0.197021484375,-0.17919921875,0.046844482421875,-0.0096588134765625,-0.029388427734375,-0.047882080078125,-0.014129638671875,-0.0257568359375,-0.0404052734375,-0.0261077880859375,0.0003376007080078125,-0.0009965896606445312,-0.000820159912109375,-0.0008802413940429688,0.012420654296875,-0.0009670257568359375,0.00028061866760253906,-0.0013294219970703125,-0.0015382766723632812,-0.0014629364013671875,-0.0008268356323242188,-0.00037789344787597656,0.00022995471954345703,-0.00055694580078125,0.01348114013671875,-0.0016841888427734375,0.0038967132568359375,0.0014944076538085938,0.003658294677734375,0.0006799697875976562,-0.00335693359375,-0.021240234375,-0.00919342041015625,-0.0012712478637695312,0.0020389556884765625,0.00492095947265625,0.00067901611328125,-0.0013799667358398438,0.001468658447265625,0.0018873214721679688,-0.0027751922607421875,0.0020542144775390625,-0.0167083740234375,-0.00991058349609375,-0.01232147216796875,-0.00013172626495361328,-0.0088958740234375,-0.01540374755859375,0.028717041015625,-0.0172119140625,-0.020721435546875,-0.0074615478515625,0.0016546249389648438,0.005035400390625,-0.00768280029296875,-0.00521087646484375,-0.025177001953125,-0.01593017578125,-0.04034423828125,-0.01218414306640625,-0.03900146484375,-0.052093505859375,-0.057708740234375,-0.04351806640625,0.1168212890625,-0.2412109375,-0.08978271484375,-0.033294677734375,-0.00015163421630859375,0.0097503662109375,-0.035308837890625,-0.033966064453125,-0.090576171875,-0.07086181640625,0.0063934326171875,0.0075836181640625,0.0018949508666992188,-0.007595062255859375,-0.006744384765625,0.00946807861328125,0.050384521484375,0.003025054931640625,0.0146636962890625,0.01220703125,-0.00560760498046875,-0.0126495361328125,-0.006351470947265625,-0.00629425048828125,0.0197296142578125,0.00994110107421875,-0.0174102783203125,0.00670623779296875,0.0014286041259765625,-0.031890869140625,-0.0248260498046875,-0.017822265625,0.045989990234375,-0.09710693359375,0.0036296844482421875,0.0033740997314453125,-0.006526947021484375,-0.00907135009765625,-0.0202789306640625,-0.0162506103515625,0.003444671630859375,-0.01119232177734375,-0.00806427001953125,-0.0008945465087890625,-0.0274810791015625,0.01404571533203125,0.01007843017578125,-0.04339599609375,0.1295166015625,-0.08502197265625,-0.0706787109375,0.00618743896484375,-0.01311492919921875,-0.0113372802734375,0.0010194778442382812,-0.01078033447265625,-0.019134521484375,0.006923675537109375,0.015838623046875,0.00933074951171875,-0.01849365234375,0.0276336669921875,0.02862548828125,-0.056396484375,0.048553466796875,0.0648193359375,-0.07403564453125,0.01751708984375,-0.008758544921875,0.001934051513671875,0.01568603515625,0.0099029541015625,-0.01395416259765625,0.008880615234375,-0.00014579296112060547,0.00039887428283691406,-0.0013475418090820312,8.720159530639648e-05,-0.0003533363342285156,0.0005030632019042969,0.0007882118225097656,0.00051116943359375,0.0003161430358886719,0.0002791881561279297,-0.00028228759765625,-0.0007467269897460938,0.00020122528076171875,-8.279085159301758e-05,0.00016510486602783203,5.543231964111328e-06,-0.01508331298828125,0.0005822181701660156,-0.00026416778564453125,6.198883056640625e-06,-0.0008907318115234375,0.0005812644958496094,-0.004116058349609375,-7.271766662597656e-06,0.0027217864990234375,0.0005946159362792969,0.0002624988555908203,-0.00014662742614746094,-0.0006437301635742188,-0.0001728534698486328,0.00013566017150878906,9.79304313659668e-05,-0.034027099609375,-0.006488800048828125,-0.00887298583984375,-0.0079803466796875,0.01512908935546875,-0.02691650390625,-0.1236572265625,0.166015625,-0.03887939453125,0.0028667449951171875,0.006587982177734375,0.01006317138671875,0.00344085693359375,0.00848388671875,0.04766845703125,-0.003635406494140625,-0.024383544921875,0.009307861328125,-0.01397705078125,0.0238037109375,0.033416748046875,-0.0189208984375,0.03680419921875,0.03399658203125,-0.027099609375,0.0303802490234375,0.00467681884765625,0.0006194114685058594,0.007801055908203125,0.007053375244140625,0.031646728515625,0.0298309326171875,-0.0003631114959716797,0.0009694099426269531,-0.0006976127624511719,6.508827209472656e-05,-3.737211227416992e-05,0.0005602836608886719,0.0006661415100097656,-0.0006666183471679688,-0.0003871917724609375,-0.00012743473052978516,-0.00019562244415283203,-0.00023925304412841797,-0.0001138448715209961,6.431341171264648e-05,-8.51750373840332e-05,3.975629806518555e-05,0.0005731582641601562,0.004512786865234375,-0.0004074573516845703,-4.8041343688964844e-05,0.0003814697265625,-0.000980377197265625,0.0025177001953125,0.0003552436828613281,-0.001644134521484375,-6.0439109802246094e-05,-0.006153106689453125,-0.00861358642578125,0.001117706298828125,-0.0004096031188964844,-0.000823974609375,0.0005593299865722656,-0.00576019287109375,-0.0139007568359375,-0.0090789794921875,-0.0013093948364257812,-0.006744384765625,-0.007801055908203125,0.01441192626953125,-0.0174407958984375,-0.00484466552734375,-0.0038318634033203125,0.0012865066528320312,-0.0013790130615234375,-0.006092071533203125,-0.004596710205078125,-0.0125885009765625,-0.00809478759765625,-0.045867919921875,-2.3603439331054688e-05,-0.023406982421875,0.02008056640625,0.0186004638671875,-0.02362060546875,0.044830322265625,0.0865478515625,-0.033050537109375,0.0035762786865234375,0.01262664794921875,0.0032062530517578125,-8.338689804077148e-05,0.0114898681640625,-0.00986480712890625,0.01313018798828125,0.0010843276977539062,0.003528594970703125,0.0022125244140625,-0.00783538818359375,-0.0052490234375,0.002197265625,0.058807373046875,-0.001689910888671875,0.0231170654296875,0.01096343994140625,-0.006549835205078125,-0.007720947265625,-0.006008148193359375,-0.004535675048828125,0.01212310791015625,0.01248931884765625,-0.025634765625,0.00836181640625,-0.0116729736328125,-0.0007176399230957031,-0.00815582275390625,-0.0073089599609375,0.05523681640625,0.0299835205078125,-0.0031337738037109375,0.0125579833984375,0.0017709732055664062,-0.003536224365234375,-0.00965118408203125,-0.0118560791015625,0.025604248046875,0.01094818115234375,0.015594482421875,-0.0036773681640625,-0.024017333984375,0.02154541015625,0.0004286766052246094,-0.02655029296875,0.11895751953125,-0.0258636474609375,-0.061187744140625,0.006145477294921875,-0.01241302490234375,-0.0094146728515625,0.003307342529296875,-0.0107574462890625,-0.02545166015625,-0.0049896240234375,0.00801849365234375,0.0012922286987304688,-0.019866943359375,0.027984619140625,0.0307159423828125,-0.05255126953125,0.05816650390625,0.0504150390625,-0.07952880859375,0.0164947509765625,-0.01015472412109375,-0.0019502639770507812,0.01305389404296875,0.01203155517578125,0.0004210472106933594,0.01151275634765625,0.0005917549133300781,0.00015556812286376953,-0.0008606910705566406,0.00034928321838378906,0.0007376670837402344,0.0005869865417480469,0.00164031982421875,0.0005388259887695312,0.0006384849548339844,0.0003256797790527344,-0.00036144256591796875,-0.00032019615173339844,0.000335693359375,-0.00029158592224121094,8.207559585571289e-05,0.0005192756652832031,-0.0008435249328613281,0.0008826255798339844,0.00238800048828125,-0.0003368854522705078,-0.00010854005813598633,0.003078460693359375,-0.0028362274169921875,0.0013637542724609375,0.0035877227783203125,0.0008254051208496094,0.0010652542114257812,7.212162017822266e-06,-0.0004317760467529297,0.0008168220520019531,0.0006155967712402344,0.000904083251953125,-0.08074951171875,-0.0018138885498046875,-0.01386260986328125,-0.006992340087890625,-0.0036563873291015625,-0.052947998046875,-0.1412353515625,0.054046630859375,-0.06854248046875,0.00086212158203125,0.006702423095703125,0.02294921875,0.0034961700439453125,0.0132293701171875,0.039306640625,0.006687164306640625,-0.015716552734375,0.01409912109375,-0.01125335693359375,0.0247802734375,0.0181884765625,-0.0131378173828125,0.037628173828125,0.00403594970703125,-0.01517486572265625,0.0221405029296875,-0.002140045166015625,0.0016193389892578125,0.00588226318359375,0.002208709716796875,0.0170745849609375,0.04180908203125,-9.799003601074219e-05,0.0010786056518554688,-0.0006871223449707031,5.614757537841797e-05,-0.00037598609924316406,0.0006985664367675781,0.000583648681640625,0.0010747909545898438,0.0007023811340332031,6.753206253051758e-05,-9.250640869140625e-05,-7.56382942199707e-05,0.00017964839935302734,-0.0005636215209960938,0.0001652240753173828,-7.641315460205078e-05,-0.002132415771484375,0.0017900466918945312,-0.0008845329284667969,3.3974647521972656e-05,0.0006680488586425781,0.0011472702026367188,0.0018463134765625,-0.0001138448715209961,0.0002359151840209961,-0.0003368854522705078,-0.0015134811401367188,-7.814168930053711e-05,0.0011196136474609375,-0.0005435943603515625,-0.00012946128845214844,8.344650268554688e-07,0.01398468017578125,-0.01313018798828125,0.011993408203125,0.0017385482788085938,-0.0013027191162109375,0.00753021240234375,-0.005825042724609375,-0.006130218505859375,0.0196380615234375,-0.0080413818359375,0.0029926300048828125,0.0018215179443359375,-0.0033779144287109375,0.0014705657958984375,0.0009541511535644531,-0.01074981689453125,0.0306396484375,-0.032562255859375,0.01166534423828125,-0.0986328125,-0.1455078125,0.09033203125,0.0784912109375,-0.451904296875,0.08837890625,-0.08203125,-0.032806396484375,-0.0201873779296875,-0.051239013671875,-0.05511474609375,-0.1129150390625,-0.137939453125,0.01160430908203125,-0.0116729736328125,0.01384735107421875,0.00312042236328125,-0.002197265625,0.0102996826171875,0.0038852691650390625,0.00371551513671875,0.015350341796875,-0.007793426513671875,0.0016050338745117188,0.0015325546264648438,-0.00215911865234375,0.00362396240234375,0.0021419525146484375,-0.00408935546875,0.018310546875,-0.035888671875,0.011138916015625,-0.10760498046875,-0.1368408203125,0.08111572265625,0.08319091796875,-0.41259765625,0.07562255859375,-0.07989501953125,-0.028961181640625,-0.0078125,-0.051239013671875,-0.05560302734375,-0.10479736328125,-0.1297607421875,0.05560302734375,-0.0018358230590820312,-0.00917816162109375,0.0236663818359375,0.015960693359375,-0.004398345947265625,0.12005615234375,3.916025161743164e-05,-0.047454833984375,-0.007663726806640625,-0.025665283203125,-0.01580810546875,0.0103607177734375,-0.01280975341796875,-0.037506103515625,-0.004787445068359375,0.044708251953125,0.0020961761474609375,-0.0198822021484375,0.033721923828125,0.031646728515625,-0.04632568359375,0.1143798828125,-0.00984954833984375,-0.06243896484375,0.00742340087890625,-0.0150299072265625,-0.0025653839111328125,0.0118255615234375,0.006412506103515625,-0.029571533203125,0.0168914794921875,0.0008139610290527344,0.00029778480529785156,-0.0007443428039550781,-0.0005021095275878906,-6.008148193359375e-05,-0.0007891654968261719,0.0006093978881835938,0.00011587142944335938,-0.0015954971313476562,0.010711669921875,0.0084381103515625,-0.00034332275390625,0.0006380081176757812,-0.0019321441650390625,-0.0007958412170410156,-0.0006170272827148438,0.002094268798828125,0.002155303955078125,0.00244903564453125,-0.0013494491577148438,-0.0010843276977539062,0.0063629150390625,-0.0014982223510742188,0.0013141632080078125,-0.016204833984375,-0.004756927490234375,-0.0014095306396484375,0.0009140968322753906,-0.00025153160095214844,-0.0010690689086914062,0.000675201416015625,0.0011987686157226562,-0.07318115234375,0.00554656982421875,-0.0016994476318359375,-0.01226806640625,0.007038116455078125,-0.00954437255859375,-0.16064453125,0.11248779296875,0.005462646484375,0.013671875,0.0254364013671875,0.02215576171875,0.00027251243591308594,0.01428985595703125,0.025909423828125,0.0030193328857421875,0.075439453125,0.0014753341674804688,0.01418304443359375,-0.005584716796875,-0.0166168212890625,0.040496826171875,0.189697265625,-0.1329345703125,0.037384033203125,0.0010585784912109375,-0.0213165283203125,-0.033599853515625,-0.011688232421875,-0.020538330078125,-0.0263214111328125,-0.00453948974609375,0.00040721893310546875,-0.00015032291412353516,-0.0007534027099609375,-0.0012836456298828125,-0.0015544891357421875,-0.0013780593872070312,-0.0005002021789550781,0.002582550048828125,-0.0018186569213867188,-0.0010251998901367188,-0.00013554096221923828,-0.00011152029037475586,2.6881694793701172e-05,-0.0009102821350097656,-0.0010919570922851562,0.002635955810546875,0.003650665283203125,0.00018131732940673828,0.00396728515625,0.0005784034729003906,0.0005035400390625,-0.00966644287109375,-0.01495361328125,-0.0012111663818359375,0.0025653839111328125,-0.00019943714141845703,0.0024662017822265625,0.0007443428039550781,0.0009927749633789062,0.002826690673828125,-0.0016202926635742188,-0.00213623046875,0.07769775390625,-0.0022449493408203125,-0.00243377685546875,0.0267791748046875,0.00836944580078125,0.0028247833251953125,0.14111328125,-0.026153564453125,-0.005710601806640625,-0.00519561767578125,-0.026275634765625,-0.0232086181640625,0.00653076171875,-0.008758544921875,-0.0318603515625,-0.01123046875,-0.040283203125,0.00632476806640625,-0.01300811767578125,0.015655517578125,0.0090179443359375,-0.0110321044921875,-0.0225372314453125,0.0877685546875,-0.045196533203125,0.00847625732421875,0.00885772705078125,0.01155853271484375,0.0012674331665039062,0.0094146728515625,0.0215301513671875,0.01363372802734375};

// const float dense2_bias[6] = {0.2052001953125,0.1915283203125,0.278076171875,0.11474609375,0.3486328125,0.1766357421875};
// const float dense2_weight[16][6] = {0.5146484375,-0.11297607421875,-0.2044677734375,-0.0106658935546875,0.430419921875,-0.031524658203125,-0.91259765625,0.4091796875,0.32470703125,-0.007114410400390625,-0.44140625,0.17333984375,0.451171875,0.69873046875,-0.67724609375,-0.1505126953125,0.41015625,-0.2171630859375,-0.0196990966796875,-0.41845703125,-0.418701171875,0.63916015625,-0.152587890625,0.406005859375,0.120849609375,-0.36767578125,-0.300048828125,0.71142578125,-0.2880859375,0.338623046875,0.1373291015625,0.62548828125,0.241943359375,0.2015380859375,0.3095703125,0.050048828125,-0.76611328125,-0.45166015625,-0.01267242431640625,0.0118560791015625,0.65869140625,-0.090087890625,-0.18701171875,-0.213623046875,-0.732421875,0.54541015625,0.1534423828125,0.63671875,0.336181640625,-0.469970703125,0.3828125,-0.029754638671875,0.52392578125,0.0545654296875,-0.53271484375,-0.25390625,-0.269775390625,0.448974609375,-0.1378173828125,0.1788330078125,-0.1656494140625,-0.22802734375,-0.499267578125,0.61865234375,-0.05902099609375,0.34033203125,-0.2493896484375,-0.263427734375,-0.78076171875,0.634765625,-0.1763916015625,0.408935546875,-0.404052734375,0.07147216796875,-0.03582763671875,0.30615234375,-0.3935546875,0.436767578125,-0.2269287109375,-0.263671875,-0.55908203125,0.51025390625,-0.1376953125,0.33984375,-0.310302734375,-0.1544189453125,-0.148193359375,0.2196044921875,-0.431884765625,0.488525390625,-0.51611328125,-0.26708984375,-0.297607421875,0.12371826171875,-0.413330078125,0.31787109375};
// const float dense3_bias[2] = {-0.2227783203125,0.2227783203125};

// const float dense3_weight[6][2] = {-0.87890625,0.349365234375,0.00795745849609375,1.5595703125,-1.01171875,-0.1856689453125,0.0731201171875,-0.71435546875,-0.52197265625,0.80322265625,0.70556640625,-0.96875};

const union TwoFloat16 dense1_wq[16][31] = {0xed5054c,0x1515051c,0x1ca02f18,0x9980114,0x6a385f61,0x1880130,0x4f081b70,0x575c12d0,0x24703628,0x51800dc,0x54a8557d,0x3bc0050,0x26b91009,0x10b50620,0xf3407bd,0xe790021,0x176920a9,0x8c0059,0x2c090585,0x18990108,0x7b00ef8,0xcd0090,0xf154d85,0x20d0019,0x1d680d6c,0x11900b20,0x2ae83560,0x20000c8,0x48684641,0x3800064,0x26a94a94,0xb50908,0x10d0cc4,0x6c0020d,0x78c0028,0x6990864,0xd0051,0x27a10da5,0x24e908e9,0x890000,0x16c0061,0x5750754,0x16c00f5,0xbb10981,0x6700744,0x8f400d9,0x8c0060,0x8ec0639,0x45400ec,0x50d59,0x8040360,0x13c0385,0xd80024,0xd8801bd,0x1b40108,0x1f410c99,0x22710b35,0x20001c1,0x2100048,0x1680550,0x2c0025,0x6100225,0x2410380,0x4bd01cc,0x129d0cc5,0x17c0091,0x159409cd,0x1b1011d,0x1d8c0998,0x19b00264,0x151508f1,0x1c8010d,0xb000585,0x38000c9,0x25710bd5,0x15c01d0,0x11c11a61,0x410149,0xd690885,0x6500a9,0x167908b5,0xb35021c,0x1311170d,0x24800d1,0xacd0d4d,0xd900a9,0xb300b80,0xab00d48,0x131508cd,0x25800b5,0xd9c01a1,0x3cc00b9,0xc7d0255,0x8050055,0x90d0708,0x1f1c189c,0xc500201,0x15f40f55,0xf90201,0x6c650099,0x5d810158,0x27281d0c,0xf50cb0,0x60512f5,0xa400d9,0x32010021,0x1e9d0749,0x1a840d78,0x14,0x16d807a9,0x9000c,0x13440141,0xb10785,0x1adc14ac,0x510054,0x17c806b5,0x8000c,0x5ead01a8,0x674d02fc,0x205c16b8,0x1490079,0x55d0bc5,0x8c0139,0xf0419b4,0x1c4904d4,0xbd50564,0x242c0394,0xa940044,0x22e81909,0x4c5003c,0x8031029d,0x77a500bc,0x1cc81990,0x3ac015d,0x24950141,0x3390bec,0x37650889,0x17d50679,0x1b7809ac,0xd90055,0x20140e84,0x5c0009,0x11d80679,0x7d50509,0x1d7c0068,0x1900b4,0x11740381,0xa4005d,0x8bad0141,0x835d0219,0x1e600f50,0x109000d,0xff106c0,0x78017d,0x8a80808,0x6cd05ac,0x54c059c,0x17911279,0xe8000d9,0x34481ed1,0x3401b5,0x5f700b40,0x57c40f44,0x20cd1089,0x45d0081,0x2aa40e99,0x146100ed,0x29c50ec9,0x11190914,0x362129a9,0x8c0078,0x122919d5,0xf10088,0x16ad077d,0x7050218,0x3271197d,0x2f40090,0xc9d32d5,0x11800a8,0x56b40738,0x4ddc09e0,0x2c790439,0x61800c1,0x26e00929,0x9450151,0xa9502b4,0xc98059d,0x8b002c9,0x73047ff4,0x19100b9,0x76009a19,0x2f5003d,0x753c01b9,0x66200811,0x6f4475c4,0xb980070,0xbd209d41,0x8d10044,0x70241b90,0x2c24305c,0x2e9c7c54,0x3f100c0,0x235476b5,0x26800a0,0x2b080dd4,0x35043874,0x37d47230,0x2b90190,0x241c8795,0x1c4008c,0x4b580595,0x4fdc03b8,0x6dcc7340,0x1710094,0xb6189a35,0xe590079,0x15a18774,0x835013d,0x37550281,0x41242fb1,0x33c01b9,0x3f903718,0x15c01c1,0xfc9706ed,0xf67f0084,0x44040128,0x3b40115,0xac051988,0x1390145,0xe78d1085,0x5d3902e4,0x3e38519d,0x1007c,0x20a09f5c,0x5400a1,0x531410bd,0x1cc8019d,0x306418d5,0x14c0084,0x3dc33e0,0x190108,0xb1d305e1,0x8c170390,0x9750008,0x140001c,0x7f9d6bfc,0x1290278,0x54401919,0x9510c88,0x12f90f58,0x339d2715,0x10580225,0x41801fe5,0x180026d,0x6cec0680,0x63f41280,0x3e651f85,0xdd901ad,0x2cf80419,0x1f40179,0x563113e5,0x37c0e10,0x471143d9,0x29c004c,0x1a012551,0x195005d,0x1fb904a5,0x3011630,0x4c593abd,0x370009c,0xe9141cd,0x3800ac,0x54d412d8,0x48980ebc,0x3bf12d8d,0xf8d0189,0x23e0053c,0x27401bd,0x2b610579,0x17d0624,0x7f90748,0x75c0159,0x2240334,0x6480b3c,0x5880641,0x5ddd0769,0x5bfd040d,0xc7003fd,0x13c0159,0x9450378,0x4b80165,0x1ff50729,0x33c0bb4,0x10d005f0,0x900044,0x1d2802c0,0xd001d,0x36c03ad,0xc0c0a84,0xfd405e4,0xc80050,0x154000d0,0x510010,0x4ebd07b9,0x4cb10779,0x7200759,0x4910a48,0x1040d1c,0x3100f9,0x82004fd,0x69d00fd,0x9a504e1,0xd29132d,0x28801d9,0xdc91e74,0x490a90,0x35310134,0x2c3d0080,0xef914ad,0x3c0099,0x1c3515f4,0xa400c9,0x250194,0x6450561,0x8690c95,0x400045,0x47c0650,0x5e90031,0xc1c013c,0x1b00649,0x9bd0be9,0x1040059,0x20d066c,0x1710015,0x1f7d02dc,0x1bcd0188,0xe6d18a1,0x1590818,0x14751868,0x25c0021,0x8801939,0x81800e0,0x16d00a1,0xb6d11b5,0x1fc0c84,0x1f8518b8,0x1e500c5,0x1a510218,0x19190144,0x2291045,0x9004d,0x2df5189c,0x151005d,0x95c04d4,0x8b50c25,0x1d80ae1,0x2500b5,0x9809a8,0x8450039,0x3100151,0x3650769,0x1dd0909,0x4d,0x18c1604,0x110011,0x136101bc,0x77d0178,0x2750f2d,0xe00055,0x20411544,0xb40019,0xb181645,0x8d1088c,0x60d04e4,0x13200634,0x34c01bc,0x9000205,0x4200338,0x28410351,0x29210045,0xfa40d1c,0x20d0684,0xd9103e5,0x1680038,0x21e50761,0x13750619,0xf0c00f8,0x9d0030,0x77c034c,0x1100019,0x1505d9,0x94105c5,0xc88032c,0x690050,0x5a40358,0x110002c,0x3131033d,0x31310211,0xb5809f0,0x3d009c,0xb390040,0xf00004,0x1340644,0x571020c,0x26d021d,0x2300f29,0x2f50239,0x1280b70,0x4a90044,0x469902a8,0x3cfd041c,0x525088d,0x31d0fb0,0x18b90ac0,0x1cc0089,0x20990501,0xf990609,0x9800a59,0x290015,0x6c40824,0x65000c,0xb040469,0xb610459,0xb8c0a51,0xc80045,0x21c0cb0,0x850089,0x34e90168,0x35610378,0x6240c4d,0x10501d9,0x13b50db4,0x2b400dd,0x9080869,0x27501b0,0x105087c,0x475216d,0x5390129,0x4f82684,0x6a800b5,0x72990004,0x7b650274,0x1c3d1c29,0x12c00d5,0x26c90fac,0x2a90cf0,0x56f11829,0x34c12f0,0xd65125d,0x200028,0x1e602dc0,0xc90015,0x9790c15,0x18940ba0,0x64186d,0x940014,0x106425b8,0x1d0028,0x6c6500e8,0x6499020c,0x1c612401,0xa400c1,0x194518dc,0x18d010d,0x14a81e95,0x6dd0e1c,0xf8d1078,0x1e680015,0x8e80440,0x133408f9,0x74c03c8,0x860d08e5,0x7ec9075d,0x162c04d8,0x3bc020d,0x191100f5,0x1f8019d,0x44050f49,0xabd0988,0x88406a4,0x180000,0x1ca0037d,0x880008,0xc9807c5,0xa800bfc,0xb0c04c9,0xdc007c,0x28200668,0x11,0x84690a51,0x7c9103ed,0x10340499,0x1240095,0x45902e4,0x20d0284,0xd140ac5};
const union TwoFloat16 dense1_bq[8] = {0xaaddc2bf,0x7cff1974,0x955d51bf,0x82be33ff,0xf0bd704d,0xc33d623f,0x20fff63f,0x41bf387f};
const union TwoFloat16 dense2_wq[6][8] = {0xe99d83bc,0x509737c,0x23241eec,0x2fddc41d,0x885d560c,0x3fd52a65,0x3a15676d,0x841d4f6d,0x68bc1ce9,0x6b1db2dc,0xa01c5e1d,0x36ad739d,0x40fd784d,0x436d3a5d,0x437d1248,0x445d2785,0x531c3455,0x6b2dad5d,0x3dec4ccd,0xbb7d033d,0x450d61fc,0xc7dd7fcd,0x8f1d0929,0x4c2d25ed,0x1d102b9,0xa39c2685,0x3394b61c,0x8b9c0308,0x72ec079d,0xa27c9e5c,0x829c4e5c,0x1fa83834,0x70fd6e2c,0x270d68fc,0x4f3c49bd,0x2744a89c,0x2345861c,0x2d250f19,0x233d64bd,0x69cd6e8d,0x2c5c0811,0x67ec3795,0xccc56ac,0xa2fc170d,0x2dc40df4,0x68ac571c,0x56fc6fcc,0x515c7d0c};
const union TwoFloat16 dense2_bq[3] = {0x31043484,0x1d5c472c,0x2d34593c};
const union TwoFloat16 dense3_wq[2][3] = {0x208e0fd,0x12b402ff,0xb49c859d,0x8f3e596c,0xb6dd2f85,0xf7fdcd9c};
const union TwoFloat16 dense3_bq[1] = {0x39043905};



const float factor[5] = {
    1.2576034326597791,
    1.9181346667759376,
    3.9560911940435046,
    3.709846652603276,
    2.143515823916947,
};

const float threshold[5] = {
    7.557626730360952,
    10.535046907792262,
    8.90187206619138,
    7.050705405272044,
    9.73472882812338,
};
